digraph Tree {
node [shape=box, style="rounded", color="black", fontname="helvetica"] ;
edge [fontname="helvetica"] ;
0 [label="PAY_2 <= 1.5\ngini = 0.3\nsamples = 12712\nvalue = [15654.0, 4446.0]"] ;
1 [label="PAY_AMT6 <= 1538.5\ngini = 0.3\nsamples = 10838\nvalue = [14401, 2768]"] ;
0 -> 1 [labeldistance=2.5, labelangle=45, headlabel="True"] ;
2 [label="gini = 0.3\nsamples = 5361\nvalue = [6819, 1749]"] ;
1 -> 2 ;
3 [label="gini = 0.2\nsamples = 5477\nvalue = [7582, 1019]"] ;
1 -> 3 ;
4 [label="PAY_3 <= 1.0\ngini = 0.5\nsamples = 1874\nvalue = [1253, 1678]"] ;
0 -> 4 [labeldistance=2.5, labelangle=-45, headlabel="False"] ;
5 [label="gini = 0.5\nsamples = 640\nvalue = [557, 457]"] ;
4 -> 5 ;
6 [label="gini = 0.5\nsamples = 1234\nvalue = [696, 1221]"] ;
4 -> 6 ;
}